#pragma once

#include "includes.hpp"

namespace CutNet {
	constexpr float fc1_weight[32][8] = {{-1.153087, 0.045976, 0.109746, 9.301449, -0.094397, -2.409660, 0.050303, 0.032936, }, {-3.398085, -0.309788, 0.051887, -5.799692, 0.303075, -1.365884, -0.018369, -0.002675, }, {0.267782, -0.416899, -0.010965, -2.014424, 0.061046, -0.408126, -0.167140, 0.217714, }, {-0.593143, -1.043535, 0.038595, 7.061245, 0.241283, -0.149503, 0.007277, 0.000415, }, {-0.218181, -0.062414, 0.008903, -18.010000, 0.181720, 1.293801, 0.027030, 0.008878, }, {-3.526786, -0.160954, -0.001377, -7.861702, 0.336685, 0.899523, 0.000985, 0.000396, }, {1.250485, 0.243583, 0.102928, 1.176287, -0.193379, 0.403101, 0.084018, -0.002799, }, {2.942957, -0.397860, 0.258021, -10.376847, -0.239111, 1.574958, 0.016172, -0.011779, }, {-1.968534, -1.174010, -0.000643, -0.375598, 0.267682, -1.792346, 0.009275, 0.004078, }, {-1.506415, -0.659181, 0.012934, -4.040979, -0.172446, -1.000159, 0.003880, 0.000819, }, {-2.257093, -2.522721, 0.009397, -10.140518, 0.089560, -1.420032, 0.003487, 0.000536, }, {0.203934, -0.493069, -0.147079, -24.090401, 0.078770, -3.656280, 0.005855, -0.002254, }, {-1.390308, -0.830742, 0.000330, -5.766658, -0.104966, 0.208499, 0.000124, 0.000045, }, {0.392809, -1.419197, -0.000617, 5.222497, -0.286178, -1.999771, 0.010273, 0.005204, }, {-0.267893, -0.301905, -0.157129, -9.982013, 0.068709, -3.790407, 0.032180, -0.026864, }, {-2.390208, -0.163713, -0.104860, 11.897734, -0.063442, -0.210817, 0.025900, 0.044008, }, {-0.306743, -0.376513, -0.038464, 2.274267, -0.201777, 0.390987, -0.168590, 0.207207, }, {-1.969354, -2.189898, -0.041004, -1.260788, 0.117576, -0.824880, 0.012062, 0.006798, }, {-8.341679, -0.007315, -0.033423, -2.442022, -0.291987, -0.516284, 0.001468, -0.000313, }, {-1.808852, -1.441366, 0.006484, -9.324088, 0.168651, -0.730757, 0.000636, 0.000458, }, {0.320677, -1.121077, -0.000586, 1.460132, 0.137727, 0.469515, 0.018688, 0.006579, }, {0.051294, 0.088992, -0.023804, 12.328899, -0.274806, -1.272510, 0.042350, -0.000602, }, {0.141656, -1.806880, 0.011574, -2.861657, -0.197785, -1.101383, 0.011060, -0.007278, }, {-1.009206, -0.195422, -0.095652, 8.813003, 0.318691, -0.690278, 0.028455, 0.000772, }, {-3.223500, 0.069859, 0.290818, 10.144319, 0.315719, -0.343199, 0.012372, -0.019186, }, {6.284929, -0.240168, -0.002831, -0.473905, 0.174963, 0.196756, 0.024002, 0.000374, }, {-0.042442, 0.089540, -0.011260, 6.680155, -0.146355, -0.672981, 0.010061, -0.046269, }, {-2.349433, -0.102308, 0.269307, -6.090911, -0.173608, -5.318703, 0.008188, 0.006530, }, {-2.589600, -0.416152, 0.347379, 8.346070, 0.234175, 1.051659, 0.003947, 0.004719, }, {2.126660, -0.366813, -0.017618, -10.572258, -0.156879, -1.643775, 0.007646, -0.000673, }, {-2.375795, -0.908224, 0.029259, 2.588135, 0.096483, -0.505635, 0.005384, 0.002932, }, {-0.919668, -1.118807, -0.001188, 1.218155, 0.338543, -0.807575, 0.001089, 0.000642, }, };
	constexpr float fc1_bias[] = {-1.340780, -3.459673, 0.140650, -1.310241, -0.575668, 0.599766, 2.645109, -4.713619, -3.355196, -0.212635, -1.292294, -0.171972, 0.637638, -3.880639, -1.664695, 0.070473, -0.573100, -2.560775, 1.830534, -1.477542, -2.761080, 0.288936, -3.218156, 0.409218, 4.168978, 2.124526, -2.171119, -7.898239, 3.614049, 1.918865, 0.455726, -2.297186, };
	constexpr float fc2_weight[] = {0.030860, 0.010488, 0.080107, 0.000800, -0.031331, 0.001616, 0.034912, -0.015148, 0.001321, -0.000223, -0.000239, 0.037087, 0.000003, -0.001102, 0.037293, -0.034286, -0.081002, -0.004266, 0.491385, 0.007856, -0.005477, -0.065263, -0.002954, -0.061816, 0.034518, 0.011143, -0.036349, -0.047661, 0.032297, 0.008443, -0.004325, 0.003334, };
	constexpr float fc2_bias = 1.182486;


	const bool shouldcut(const std::array<float, 8>& features);
}